//Numpy array shape [5, 4, 4]
//Min -0.476562500000
//Max 0.500000000000
//Number of zeros 1

#ifndef W11_H_
#define W11_H_

#ifndef __SYNTHESIS__
weight11_t w11[80];
#else
weight11_t w11[80] = {-0.4218750, -0.0390625, 0.1875000, 0.0156250, 0.0468750, 0.0468750, 0.2656250, -0.3437500, -0.1640625, -0.1171875, 0.2812500, 0.1171875, -0.1796875, -0.1328125, -0.0625000, -0.0156250, -0.0546875, 0.4062500, 0.2421875, 0.3046875, -0.3046875, -0.1484375, 0.0234375, 0.1171875, 0.4140625, 0.0234375, -0.0234375, 0.1640625, 0.1640625, -0.0156250, 0.2656250, 0.3515625, -0.1328125, -0.0937500, -0.0546875, 0.0546875, 0.0000000, 0.0781250, -0.1953125, 0.1484375, -0.2968750, -0.0234375, 0.3828125, 0.0312500, -0.1093750, -0.0625000, -0.0937500, -0.3593750, 0.4296875, -0.1015625, 0.3125000, 0.3203125, 0.1796875, 0.0625000, -0.2031250, -0.4765625, -0.0390625, 0.0781250, -0.1796875, 0.2734375, 0.2656250, -0.2890625, 0.0468750, 0.1406250, -0.0312500, -0.0546875, 0.1328125, -0.2343750, 0.1796875, -0.3125000, -0.0703125, 0.3281250, 0.5000000, 0.0468750, 0.1015625, -0.1484375, -0.2812500, -0.2343750, -0.0234375, -0.1953125};
#endif

#endif
